MTP
version = 1.1.0
potential_name = MTP1m
scaling = 5.900497410806774e-02
species_count = 3
potential_tag = 
radial_basis_type = RBChebyshev
	min_dist = 2.000000000000000e+00
	max_dist = 5.000000000000000e+00
	radial_basis_size = 8
	radial_funcs_count = 3
	radial_coeffs
		0-0
			{1.601839634320240e-01, 1.428829850270235e-01, 9.997087084061665e-02, 3.204304877184855e-02, -1.012303581039809e-02, -1.709290651856882e-02, -1.104293737647833e-02, -6.172312104638924e-03}
			{1.512774739455138e-01, 1.306276291490663e-01, 4.277795590713686e-02, 1.780053572878059e-02, 8.002302563554156e-03, 7.122219446390421e-03, 6.789867402746570e-04, 2.053296725505681e-03}
			{2.315726279130919e-01, -1.302889077021926e-01, 5.466899469619044e-02, -3.115076785328965e-02, -2.226273218845467e-03, -1.084938879083366e-03, -9.645092322833793e-04, 1.021457740362203e-03}
		0-1
			{1.407843760172164e-01, -7.651008852316324e-02, 9.396143167363151e-02, -5.269907038993626e-02, 4.041738933345307e-02, -3.312206234394685e-02, 2.942542487058399e-02, -9.865982257982219e-03}
			{1.402516906213657e-01, 1.067406752618719e-01, 4.226303987101246e-04, -7.252928410124361e-02, -3.835555312550443e-02, -2.153467390206787e-02, -4.260759267319353e-02, -4.200699733014396e-03}
			{3.609688809978793e-01, 1.537563623379274e-02, -6.899072714004387e-02, -3.427707852521306e-02, -1.363342965832036e-01, 1.777244150933719e-03, 6.563101611347619e-02, 7.290966269417031e-03}
		0-2
			{-1.953281284283659e-01, -6.042009433568818e-02, -1.132638719197892e-01, -3.009526101783178e-02, -1.945364030298224e-02, -2.720380224973999e-03, -1.532925008315972e-03, -1.361989892050856e-03}
			{-3.309734165051337e-02, -4.768337518658709e-02, -2.034138542793118e-02, -1.260532168037260e-02, 1.533969202679545e-02, 2.574461372806143e-02, 1.457023680401253e-02, 5.578819684832550e-03}
			{-2.119778777607846e-01, 2.188516567405944e-01, 2.686446922028372e-03, -1.249625486449525e-01, 7.494080084752640e-02, 2.339363153966427e-02, -9.010622498647395e-03, -1.018067352438586e-02}
		1-0
			{-7.969889266919500e-02, -1.098927995488640e-01, -4.526976309471870e-02, 7.262327731409373e-05, -1.034569428129053e-03, -2.923151319605754e-03, 4.043900894761606e-03, -3.951977281855008e-03}
			{6.802965427682822e-02, -9.045773110507372e-03, 2.451623592912155e-01, 5.493044344476680e-02, 1.103954204267775e-01, -2.013025314869008e-02, 2.238820089329302e-02, -2.246009455250493e-02}
			{3.102228522521620e-01, -3.948183379757256e-02, 1.990713726948746e-02, -3.856655587054045e-02, 8.868589788498006e-03, 4.471565998213399e-02, -7.391467826421350e-02, 3.043189884832990e-02}
		1-1
			{-9.525188493401372e-02, -1.496764467242821e-01, 6.843992666341538e-02, -8.661600999912492e-02, -9.371174536484504e-02, -1.267646493480629e-01, 6.206440311304118e-02, -9.603096846291631e-02}
			{-1.212799470270195e-02, -2.381817026493140e-02, -6.204125659472734e-02, -4.004104198143906e-02, -2.958766565920129e-02, 6.960030576990861e-03, 1.545558791365979e-02, -5.034500187456806e-02}
			{-1.336878305268619e-02, -2.367881800217895e-02, -2.987947167502599e-02, -6.215087245376216e-02, -5.545189944112118e-02, -1.955149917246899e-02, 4.159247307256229e-02, -1.563492707394000e-02}
		1-2
			{3.939511541176199e-01, 7.502475783446849e-02, 2.820468073806032e-01, 2.147415691282809e-01, 5.961100380818084e-02, 6.477507191961666e-02, 7.841166747991575e-02, 2.798512466104644e-02}
			{6.092209680013207e-02, 1.093377954180900e-01, -1.258329183509680e-01, -1.401714054730525e-01, -6.114301035189137e-02, 4.535371448772192e-03, 2.124027046083853e-03, 2.258311831042082e-03}
			{-4.786333206330370e-01, 6.022174968686400e-02, 1.652996696047267e-01, 1.610632902515821e-01, 1.200047619414801e-01, -7.207169255380440e-02, 2.777664693464980e-02, 3.797328457254476e-02}
		2-0
			{2.832089434060885e-01, 2.473319972990183e-01, 1.892523176489712e-01, 1.331070549493780e-01, 5.784659163227109e-02, 2.615031850717182e-02, 8.694514451508428e-03, 2.086611017331332e-03}
			{1.043693319326761e-01, 6.992889659332094e-03, 7.966236915376378e-02, 6.675638986563141e-02, 5.342131276120345e-02, 2.763593838472074e-02, 1.023866139810748e-02, 1.832336526894721e-03}
			{3.396104629903690e-02, 1.296550865492166e-01, 1.149988020258370e-01, 9.895377637299771e-02, 6.732891315048828e-03, -7.663395752665700e-03, 1.966363631751820e-02, 1.054402886762614e-02}
		2-1
			{3.109765409102267e-01, -9.988897428848290e-02, 1.019548079460993e-01, 8.776693566716638e-02, 5.382002714497906e-03, -4.800683597471466e-03, 5.358814761221666e-03, 1.295869549159914e-03}
			{-3.111896101498032e-01, 7.614479675722492e-02, -1.629268032453886e-01, -3.697826967602001e-01, -4.487335506879010e-02, -6.583860720281966e-02, -1.703443032059747e-01, -7.045846106996291e-02}
			{-1.916181134734422e-01, -5.777193639438723e-02, -2.585187174048637e-02, -1.984931304517402e-02, 8.746262584368053e-03, 1.630188991082000e-02, -9.547359042193884e-03, -4.522431502865227e-02}
		2-2
			{-2.549500271590427e-01, -6.142342220368965e-02, -2.375598994461595e-02, -2.024916390800267e-01, -3.563778201328852e-02, -7.644376580734044e-02, -2.273486834999307e-02, -1.763268969266390e-02}
			{-3.313616371847729e-01, -4.517651838150964e-01, -1.611339677885836e-01, 1.576611419630405e-01, 1.248261242175530e-02, 2.489348706572687e-01, 6.342763606840400e-03, 8.831088768893641e-02}
			{2.137256014793347e-01, 1.926019992203765e-02, -1.234878226201208e-01, -8.359761687810169e-02, -1.890692496796806e-01, -1.687911202008894e-01, -3.923976858083426e-02, -7.142025802801771e-02}
alpha_moments_count = 84
alpha_index_basic_count = 46
alpha_index_basic = {{0, 0, 0, 0}, {0, 1, 0, 0}, {0, 0, 1, 0}, {0, 0, 0, 1}, {0, 2, 0, 0}, {0, 1, 1, 0}, {0, 1, 0, 1}, {0, 0, 2, 0}, {0, 0, 1, 1}, {0, 0, 0, 2}, {0, 3, 0, 0}, {0, 2, 1, 0}, {0, 2, 0, 1}, {0, 1, 2, 0}, {0, 1, 1, 1}, {0, 1, 0, 2}, {0, 0, 3, 0}, {0, 0, 2, 1}, {0, 0, 1, 2}, {0, 0, 0, 3}, {0, 4, 0, 0}, {0, 3, 1, 0}, {0, 3, 0, 1}, {0, 2, 2, 0}, {0, 2, 1, 1}, {0, 2, 0, 2}, {0, 1, 3, 0}, {0, 1, 2, 1}, {0, 1, 1, 2}, {0, 1, 0, 3}, {0, 0, 4, 0}, {0, 0, 3, 1}, {0, 0, 2, 2}, {0, 0, 1, 3}, {0, 0, 0, 4}, {1, 0, 0, 0}, {1, 1, 0, 0}, {1, 0, 1, 0}, {1, 0, 0, 1}, {1, 2, 0, 0}, {1, 1, 1, 0}, {1, 1, 0, 1}, {1, 0, 2, 0}, {1, 0, 1, 1}, {1, 0, 0, 2}, {2, 0, 0, 0}}
alpha_index_times_count = 117
alpha_index_times = {{0, 0, 1, 46}, {1, 1, 1, 47}, {2, 2, 1, 47}, {3, 3, 1, 47}, {1, 4, 1, 48}, {2, 5, 1, 48}, {3, 6, 1, 48}, {1, 5, 1, 49}, {2, 7, 1, 49}, {3, 8, 1, 49}, {1, 6, 1, 50}, {2, 8, 1, 50}, {3, 9, 1, 50}, {4, 4, 1, 51}, {5, 5, 1, 51}, {6, 6, 1, 51}, {4, 5, 1, 52}, {5, 7, 1, 52}, {6, 8, 1, 52}, {4, 6, 1, 53}, {5, 8, 1, 53}, {6, 9, 1, 53}, {5, 5, 1, 54}, {7, 7, 1, 54}, {8, 8, 1, 54}, {5, 6, 1, 55}, {7, 8, 1, 55}, {8, 9, 1, 55}, {6, 6, 1, 56}, {8, 8, 1, 56}, {9, 9, 1, 56}, {4, 4, 1, 57}, {5, 5, 2, 57}, {6, 6, 2, 57}, {7, 7, 1, 57}, {8, 8, 2, 57}, {9, 9, 1, 57}, {4, 10, 1, 58}, {5, 11, 2, 58}, {6, 12, 2, 58}, {7, 13, 1, 58}, {8, 14, 2, 58}, {9, 15, 1, 58}, {4, 11, 1, 59}, {5, 13, 2, 59}, {6, 14, 2, 59}, {7, 16, 1, 59}, {8, 17, 2, 59}, {9, 18, 1, 59}, {4, 12, 1, 60}, {5, 14, 2, 60}, {6, 15, 2, 60}, {7, 17, 1, 60}, {8, 18, 2, 60}, {9, 19, 1, 60}, {10, 10, 1, 61}, {11, 11, 3, 61}, {12, 12, 3, 61}, {13, 13, 3, 61}, {14, 14, 6, 61}, {15, 15, 3, 61}, {16, 16, 1, 61}, {17, 17, 3, 61}, {18, 18, 3, 61}, {19, 19, 1, 61}, {20, 20, 1, 62}, {21, 21, 4, 62}, {22, 22, 4, 62}, {23, 23, 6, 62}, {24, 24, 12, 62}, {25, 25, 6, 62}, {26, 26, 4, 62}, {27, 27, 12, 62}, {28, 28, 12, 62}, {29, 29, 4, 62}, {30, 30, 1, 62}, {31, 31, 4, 62}, {32, 32, 6, 62}, {33, 33, 4, 62}, {34, 34, 1, 62}, {0, 35, 1, 63}, {1, 36, 1, 64}, {2, 37, 1, 64}, {3, 38, 1, 64}, {4, 39, 1, 65}, {5, 40, 2, 65}, {6, 41, 2, 65}, {7, 42, 1, 65}, {8, 43, 2, 65}, {9, 44, 1, 65}, {0, 45, 1, 66}, {35, 35, 1, 67}, {0, 46, 1, 68}, {0, 47, 1, 69}, {0, 57, 1, 70}, {0, 61, 1, 71}, {1, 48, 1, 72}, {2, 49, 1, 72}, {3, 50, 1, 72}, {1, 58, 1, 73}, {2, 59, 1, 73}, {3, 60, 1, 73}, {4, 51, 1, 74}, {5, 52, 2, 74}, {6, 53, 2, 74}, {7, 54, 1, 74}, {8, 55, 2, 74}, {9, 56, 1, 74}, {0, 63, 1, 75}, {0, 64, 1, 76}, {35, 47, 1, 77}, {47, 47, 1, 78}, {0, 68, 1, 79}, {0, 69, 1, 80}, {0, 70, 1, 81}, {0, 72, 1, 82}, {0, 75, 1, 83}}
alpha_scalar_moments = 29
alpha_moment_mapping = {0, 35, 45, 46, 47, 57, 61, 62, 63, 64, 65, 66, 67, 68, 69, 70, 71, 72, 73, 74, 75, 76, 77, 79, 80, 81, 82, 78, 83}
species_coeffs = {-2.136269487554639e+00, -8.532981303332109e+00, -2.133245325833027e+00}
moment_coeffs = {-3.502922754378194e-01, -1.390601812772402e+00, 2.692271724393599e+00, -3.020705457506793e+00, -6.291489920806130e-03, 8.079314085898664e+00, -4.250558140024673e+00, -1.949701879366345e+00, 1.502900165392674e+01, -4.530711106099628e-01, -8.734592925422904e+00, 1.678850297107875e+00, 4.399710688907092e+00, -1.015535277796049e+00, -9.089201817591345e+00, 2.588775339195668e+00, -4.918299676116536e+00, -2.671834019377978e+01, 9.853886247636600e+00, -3.641907269946664e+00, 8.935667163239946e+00, -1.664463432707430e+01, 4.035952190452274e+01, 6.367445017939598e+00, 3.745895578530686e+01, -9.723625653934741e+00, 3.022962584790344e+01, 2.506068838071170e+01, -1.312878471527886e+01}