MTP
version = 1.1.0
potential_name = MTP1m
scaling = 4.470073796065738e-02
species_count = 4
potential_tag = 
radial_basis_type = RBChebyshev
	min_dist = 2.000000000000000e+00
	max_dist = 7.000000000000000e+00
	radial_basis_size = 8
	radial_funcs_count = 3
	radial_coeffs
		0-0
			{5.138005990022432e-02, -6.201944107558975e-02, 4.848633848567482e-02, -1.863894484120081e-02, 5.484754932015080e-02, -4.659184823877981e-02, 4.033445648966213e-02, -6.487719775877569e-02}
			{9.865126320142794e-03, 3.512193810607839e-02, 8.390536118753239e-03, 3.288303290292168e-02, 7.430120544892015e-03, -1.526928425250004e-02, -2.923782309750188e-02, 1.892915823106078e-02}
			{-3.462867089464524e-03, 1.163486532299415e-02, -6.361899618492857e-03, 6.479313937624336e-03, -9.578367313006673e-03, 1.731598542574988e-03, -1.054432280787542e-02, 1.337001653242434e-02}
		0-1
			{-1.580200276069167e-01, 5.282684078170730e-02, -2.318071267218519e-01, 1.455733597390365e-01, -2.833843491579119e-02, 1.131778784419546e-01, 1.391191648393059e-02, 3.108375043828896e-02}
			{-1.072598303407404e-01, -6.380117640369881e-02, 5.596373504066027e-02, 1.503628956724894e-01, -3.685605756386411e-02, -6.015557965159934e-02, -8.938576209914739e-02, -1.554851366133528e-01}
			{2.737043675495920e-01, -1.233707365867875e-01, -6.365827226383697e-02, 7.455268463324916e-02, 1.901246190938179e-02, 4.771662818283382e-02, -7.638009435454786e-02, -1.053118006781497e-01}
		0-2
			{1.210611248206069e-02, 3.002823237705899e-02, -1.242516976379234e-02, 7.537097869558903e-03, -1.618255939569023e-03, -7.575161610588230e-03, 2.050260993193208e-03, 1.240114282692587e-03}
			{1.567909767323427e-01, -1.776687029016945e-01, 4.080864671215206e-02, 9.819171780729227e-02, -1.034155268053948e-02, 2.387796808179535e-02, 2.160397434968461e-02, -1.787937710201146e-03}
			{-1.426323021802870e-02, 5.040800366416649e-02, -3.557502416748654e-02, -3.913003931493906e-02, -3.817670115116676e-04, -6.303437807888539e-03, 3.341544895501303e-03, -8.640270462061292e-03}
		0-3
			{1.290998464770565e-02, -7.853714717300687e-03, 2.164307423979096e-02, -2.377054417596251e-02, 2.291489775023870e-02, -3.566595773120868e-03, 2.978717008257274e-03, 9.148354510641426e-03}
			{2.535959337623504e-01, -9.536600924280206e-02, 1.618422395346250e-02, -1.440866584733026e-02, 5.817720628831021e-02, -2.460237421157201e-02, 1.324360248801536e-02, 5.147313072656321e-03}
			{-8.097539459015583e-02, 4.444085228717955e-02, -1.109260996822488e-02, 9.026795100248071e-03, -2.823223465677828e-02, 1.299433307884756e-02, 1.459278009343852e-02, 4.168178550568537e-02}
		1-0
			{-7.484224480224727e-02, 5.954505833483770e-03, -1.735229042381758e-02, 2.529352209265532e-02, 2.898368303850424e-02, -1.828196520502999e-02, -1.524457611749555e-02, -1.038874362542578e-02}
			{-3.081109846163961e-02, 9.236843458055159e-02, 3.374747090292661e-02, -3.894431838811693e-02, -1.008503826578984e-01, -1.541425703193243e-02, -3.603628126251780e-03, 2.097303069210421e-02}
			{6.202158157770561e-02, -9.939096469344594e-02, 6.241024411593989e-02, 1.050938163225906e-01, -1.004075350349332e-01, 1.014060238550368e-02, 2.553289043721495e-02, 4.344696501311837e-02}
		1-1
			{-1.545519412655982e-01, -2.269222044755586e-01, 7.578297146564675e-02, -1.293784108382050e-01, 5.112850095739769e-02, -6.488046784298812e-02, 1.974222515133443e-02, -8.280794722377811e-03}
			{-1.209861946603713e-01, 1.951701184694238e-01, -4.209004782523803e-02, -1.847878955439337e-02, -7.975802988490051e-02, -5.377190526860039e-02, -1.673625042229315e-02, -3.119704881217444e-02}
			{2.800057883502359e-01, -1.256303008949800e-01, 1.308352308308505e-01, -1.874865889404594e-02, -1.500807091476218e-02, -3.301999217018259e-03, -8.041755244824174e-03, -1.019141171796293e-02}
		1-2
			{4.964311707584844e-02, -1.115835743762819e-01, 1.070929136645563e-01, 1.737318034587006e-02, 1.836617443897443e-02, 3.757706791972477e-02, -4.721592435525656e-03, 1.486211759903333e-02}
			{1.367903578324018e-01, -3.698691529134942e-02, 5.896615240493986e-02, -1.235765900648964e-01, 5.226440381600733e-03, -4.087450962929703e-02, 8.275055798306351e-03, 8.195445286727464e-03}
			{1.275964774856098e-01, 1.312693103147496e-01, -9.474734879958615e-03, -1.082169538236684e-01, 1.532144300200650e-01, -8.595951915908376e-02, 1.112880166325612e-01, -6.402298417296425e-02}
		1-3
			{2.285998082203788e-01, 1.340210891711811e-01, 2.313625027353181e-01, 1.212812248002964e-01, 8.076883733557230e-02, 5.057358088483924e-02, 2.534585070915388e-02, 9.825785168493405e-03}
			{1.928350531181502e-01, 1.781105345154384e-01, 2.395799080960439e-03, -1.194284673452498e-01, 3.092324859305797e-02, -1.224670258805823e-02, -6.423500488898847e-03, 8.600145365156351e-03}
			{-8.816980154102058e-02, 5.531632960239150e-02, -8.103258092978349e-02, -6.055330270598552e-02, -2.920871189601684e-02, -7.302425763847641e-02, -5.701938578281251e-02, -4.656939828203297e-02}
		2-0
			{1.062996574283576e-01, 6.231225031688371e-02, 7.022309712213358e-02, 8.031653044716406e-03, -1.183290312427337e-02, -1.316965277402038e-02, -1.579728963835220e-02, -4.484173802015050e-03}
			{1.559272672621300e-01, -4.926623566685264e-02, 2.106631030433137e-02, -5.488522789612765e-02, -1.959299653015927e-02, 1.787674977800705e-04, -1.938185436454883e-02, -7.878101482686271e-04}
			{1.215102825648392e-01, -1.136215530620709e-01, 1.525916052233700e-02, 3.306264398193574e-02, -1.780169864099888e-02, -1.052605351298115e-02, 5.566122832723152e-03, -1.720989609271086e-03}
		2-1
			{2.162118836518280e-01, 8.421286758481612e-02, 1.349584018376039e-01, 6.140376603999503e-02, 5.086984336837094e-02, 3.620335414027345e-02, 1.190476368001265e-02, 2.708431292310689e-03}
			{3.637892383901630e-01, 1.152847557339975e-01, 6.725285954643831e-02, -4.091170962366877e-02, 1.309065692117608e-02, -9.160095314917530e-02, -2.225872043456483e-02, -4.071255296945617e-02}
			{7.820375807860909e-02, 1.064369886104871e-02, 1.589445278951894e-01, -5.025920337944761e-02, -9.107455335160200e-02, -3.370098370398544e-02, -1.143495031944281e-01, 3.222530981554299e-02}
		2-2
			{-8.104775951463621e-02, -3.041895608028028e-02, -4.374965522288204e-02, -2.008697935912173e-02, -2.374237824073946e-02, -1.692999650629970e-02, -8.242018115917706e-03, -4.686136715338384e-03}
			{-1.066180883094082e-02, 3.069707758689900e-01, -2.307008353355865e-01, 6.145169876769437e-02, 1.150640092889522e-02, 9.457042252223626e-02, 5.158718580353455e-02, 3.978335743184957e-02}
			{6.626619647947544e-02, 4.612421424769212e-02, -6.011442268338718e-02, -2.092189640685434e-02, 3.847105589498179e-02, 4.917311798676911e-02, 3.703661968358860e-02, 2.379536420583210e-02}
		2-3
			{-7.597321977601976e-02, 3.315391985668814e-02, 2.791241472049811e-02, 1.060115905820164e-02, -5.145716767768655e-03, 4.550276276164405e-03, 1.320072578273044e-02, 1.190987976670345e-02}
			{-7.677955615831453e-02, 5.727478455947976e-02, -1.348049316910186e-01, 1.179217236406152e-01, 1.441820342400305e-02, -2.008326822071329e-02, -3.537340381502638e-02, -3.589209679173892e-02}
			{4.587700801749480e-01, 2.153431247423410e-02, -1.306592251652687e-01, 2.733823199950387e-02, 1.339688946141787e-01, 6.042742529352140e-02, -1.724220529506068e-02, -1.145201420906931e-01}
		3-0
			{-6.454293415846210e-02, -6.571990786530243e-03, -4.122025149659680e-02, 1.622500804020642e-02, 1.295384065558016e-02, 4.387279156226233e-03, 7.623795328233342e-03, 1.607806548793056e-02}
			{-1.432710614662490e-02, 7.626936813293045e-02, 4.383603860715606e-02, -3.134897357290479e-02, -2.542596281319304e-02, -3.094498557192582e-02, -2.638315548584884e-02, -2.755528913714907e-02}
			{-2.877689382623068e-02, 3.511504431929286e-02, -6.602240359933309e-02, 2.047542497347688e-03, 4.119194407801403e-02, -5.016952292963282e-03, -7.177068936085579e-03, -1.269605035025509e-02}
		3-1
			{-1.846341791089152e-02, 2.298183278416589e-01, -4.946175689538686e-02, -2.161047865195208e-02, -4.675106409770871e-02, -3.521513271789482e-02, -4.736365563711374e-03, 8.261682698596060e-04}
			{-1.684869986295356e-01, -8.561327982388278e-02, 9.208505906224661e-02, 9.475450616713615e-02, 9.039376194037552e-02, 4.194389469483678e-02, 1.662243869019268e-02, 1.561918943481958e-03}
			{-9.969404042720946e-02, 2.194731934192469e-01, -9.592656201605282e-02, -1.009394304885740e-01, -4.565340186357367e-02, -1.091833455713071e-03, 3.617726577524505e-02, 3.016234894471608e-02}
		3-2
			{2.761336863653790e-01, 2.146357088317022e-01, 1.911102968899512e-01, 1.039743590180098e-01, 1.428807896781192e-01, 3.638877483946033e-02, 2.267183888690748e-02, -2.373402357027558e-02}
			{-1.201200045689343e-01, -1.159069947008237e-01, -4.425879914960867e-02, 1.828726648490520e-02, -5.275596278507229e-02, 3.936878621046565e-02, -7.261571795864459e-03, 2.402090817819694e-02}
			{-1.756037432184537e-01, -3.502469934831524e-02, 2.104414056373109e-01, 4.777633647687176e-02, -1.264889706616341e-02, -5.306797892046757e-02, 8.737476186688782e-03, 6.691633480667611e-02}
		3-3
			{3.035992881728035e-01, 2.860010945368436e-01, 1.123394838265320e-01, 1.206251220392717e-02, -2.494181703277876e-02, -3.565349819803376e-02, -4.109287541397266e-02, -2.101502177050995e-02}
			{-4.891704856715392e-02, -1.324191143636230e-01, 2.472904490841686e-02, 5.830976732455218e-02, 1.110605220021630e-01, 7.448527809806917e-02, 4.603411592333963e-02, 2.189069822213311e-02}
			{1.866835463386918e-01, -7.944629289584740e-03, 2.904649479549772e-03, -5.756912942404761e-02, -1.935609688930481e-02, -3.256620177075000e-02, -2.531502909823322e-02, -1.201952429097814e-02}
alpha_moments_count = 84
alpha_index_basic_count = 46
alpha_index_basic = {{0, 0, 0, 0}, {0, 1, 0, 0}, {0, 0, 1, 0}, {0, 0, 0, 1}, {0, 2, 0, 0}, {0, 1, 1, 0}, {0, 1, 0, 1}, {0, 0, 2, 0}, {0, 0, 1, 1}, {0, 0, 0, 2}, {0, 3, 0, 0}, {0, 2, 1, 0}, {0, 2, 0, 1}, {0, 1, 2, 0}, {0, 1, 1, 1}, {0, 1, 0, 2}, {0, 0, 3, 0}, {0, 0, 2, 1}, {0, 0, 1, 2}, {0, 0, 0, 3}, {0, 4, 0, 0}, {0, 3, 1, 0}, {0, 3, 0, 1}, {0, 2, 2, 0}, {0, 2, 1, 1}, {0, 2, 0, 2}, {0, 1, 3, 0}, {0, 1, 2, 1}, {0, 1, 1, 2}, {0, 1, 0, 3}, {0, 0, 4, 0}, {0, 0, 3, 1}, {0, 0, 2, 2}, {0, 0, 1, 3}, {0, 0, 0, 4}, {1, 0, 0, 0}, {1, 1, 0, 0}, {1, 0, 1, 0}, {1, 0, 0, 1}, {1, 2, 0, 0}, {1, 1, 1, 0}, {1, 1, 0, 1}, {1, 0, 2, 0}, {1, 0, 1, 1}, {1, 0, 0, 2}, {2, 0, 0, 0}}
alpha_index_times_count = 117
alpha_index_times = {{0, 0, 1, 46}, {1, 1, 1, 47}, {2, 2, 1, 47}, {3, 3, 1, 47}, {1, 4, 1, 48}, {2, 5, 1, 48}, {3, 6, 1, 48}, {1, 5, 1, 49}, {2, 7, 1, 49}, {3, 8, 1, 49}, {1, 6, 1, 50}, {2, 8, 1, 50}, {3, 9, 1, 50}, {4, 4, 1, 51}, {5, 5, 1, 51}, {6, 6, 1, 51}, {4, 5, 1, 52}, {5, 7, 1, 52}, {6, 8, 1, 52}, {4, 6, 1, 53}, {5, 8, 1, 53}, {6, 9, 1, 53}, {5, 5, 1, 54}, {7, 7, 1, 54}, {8, 8, 1, 54}, {5, 6, 1, 55}, {7, 8, 1, 55}, {8, 9, 1, 55}, {6, 6, 1, 56}, {8, 8, 1, 56}, {9, 9, 1, 56}, {4, 4, 1, 57}, {5, 5, 2, 57}, {6, 6, 2, 57}, {7, 7, 1, 57}, {8, 8, 2, 57}, {9, 9, 1, 57}, {4, 10, 1, 58}, {5, 11, 2, 58}, {6, 12, 2, 58}, {7, 13, 1, 58}, {8, 14, 2, 58}, {9, 15, 1, 58}, {4, 11, 1, 59}, {5, 13, 2, 59}, {6, 14, 2, 59}, {7, 16, 1, 59}, {8, 17, 2, 59}, {9, 18, 1, 59}, {4, 12, 1, 60}, {5, 14, 2, 60}, {6, 15, 2, 60}, {7, 17, 1, 60}, {8, 18, 2, 60}, {9, 19, 1, 60}, {10, 10, 1, 61}, {11, 11, 3, 61}, {12, 12, 3, 61}, {13, 13, 3, 61}, {14, 14, 6, 61}, {15, 15, 3, 61}, {16, 16, 1, 61}, {17, 17, 3, 61}, {18, 18, 3, 61}, {19, 19, 1, 61}, {20, 20, 1, 62}, {21, 21, 4, 62}, {22, 22, 4, 62}, {23, 23, 6, 62}, {24, 24, 12, 62}, {25, 25, 6, 62}, {26, 26, 4, 62}, {27, 27, 12, 62}, {28, 28, 12, 62}, {29, 29, 4, 62}, {30, 30, 1, 62}, {31, 31, 4, 62}, {32, 32, 6, 62}, {33, 33, 4, 62}, {34, 34, 1, 62}, {0, 35, 1, 63}, {1, 36, 1, 64}, {2, 37, 1, 64}, {3, 38, 1, 64}, {4, 39, 1, 65}, {5, 40, 2, 65}, {6, 41, 2, 65}, {7, 42, 1, 65}, {8, 43, 2, 65}, {9, 44, 1, 65}, {0, 45, 1, 66}, {35, 35, 1, 67}, {0, 46, 1, 68}, {0, 47, 1, 69}, {0, 57, 1, 70}, {0, 61, 1, 71}, {1, 48, 1, 72}, {2, 49, 1, 72}, {3, 50, 1, 72}, {1, 58, 1, 73}, {2, 59, 1, 73}, {3, 60, 1, 73}, {4, 51, 1, 74}, {5, 52, 2, 74}, {6, 53, 2, 74}, {7, 54, 1, 74}, {8, 55, 2, 74}, {9, 56, 1, 74}, {0, 63, 1, 75}, {0, 64, 1, 76}, {35, 47, 1, 77}, {47, 47, 1, 78}, {0, 68, 1, 79}, {0, 69, 1, 80}, {0, 70, 1, 81}, {0, 72, 1, 82}, {0, 75, 1, 83}}
alpha_scalar_moments = 29
alpha_moment_mapping = {0, 35, 45, 46, 47, 57, 61, 62, 63, 64, 65, 66, 67, 68, 69, 70, 71, 72, 73, 74, 75, 76, 77, 79, 80, 81, 82, 78, 83}
species_coeffs = {-6.136785553257708e+01, -3.476704547875859e+00, -3.276461973618221e+00, -3.476704547875860e+00}
moment_coeffs = {-3.318544147650591e+00, -1.805347664198255e+00, 6.029122346789310e+00, 8.119419850068759e+00, -9.049425328590518e+00, 9.308415392030930e-01, 1.726880721726578e+00, 2.665957122654463e-02, -2.422123501419139e+00, -7.733260669597779e+00, 2.765098967893532e+00, 2.088956556184531e+00, -5.696935945411029e-01, -1.578554522078586e+00, 9.735547027361628e+00, -1.241095528200468e+00, -5.117837013545077e+00, 2.104137497148128e+01, 1.486355175724857e+00, 2.104730029463142e+00, 7.101070973809828e+00, -1.375454370316899e-01, -5.998222990414960e-01, -1.070083375126113e-01, -1.046461533895395e+01, -4.079935409016398e+00, -2.095325128397395e+01, 1.556057105243479e+01, -4.899364180917247e+00}